{
  "description": "PLSRegression with 2 components",
  "random_state": 42,
  "input": {
    "X": [
      [
        0.4967141530112327,
        -0.13826430117118466,
        0.6476885381006925,
        1.5230298564080254,
        -0.23415337472333597
      ],
      [
        -0.23413695694918055,
        1.5792128155073915,
        0.7674347291529088,
        -0.4694743859349521,
        0.5425600435859647
      ],
      [
        -0.46341769281246226,
        -0.46572975357025687,
        0.24196227156603412,
        -1.913280244657798,
        -1.7249178325130328
      ],
      [
        -0.5622875292409727,
        -1.0128311203344238,
        0.3142473325952739,
        -0.9080240755212109,
        -1.4123037013352915
      ],
      [
        1.465648768921554,
        -0.22577630048653566,
        0.06752820468792384,
        -1.4247481862134568,
        -0.5443827245251827
      ],
      [
        0.11092258970986608,
        -1.1509935774223028,
        0.37569801834567196,
        -0.600638689918805,
        -0.2916937497932768
      ],
      [
        -0.6017066122293969,
        1.8522781845089378,
        -0.013497224737933921,
        -1.0577109289559004,
        0.822544912103189
      ],
      [
        -1.2208436499710222,
        0.2088635950047554,
        -1.9596701238797756,
        -1.3281860488984305,
        0.19686123586912352
      ],
      [
        0.7384665799954104,
        0.1713682811899705,
        -0.11564828238824053,
        -0.3011036955892888,
        -1.4785219903674274
      ],
      [
        -0.7198442083947086,
        -0.4606387709597875,
        1.0571222262189157,
        0.3436182895684614,
        -1.763040155362734
      ],
      [
        0.324083969394795,
        -0.38508228041631654,
        -0.6769220003059587,
        0.6116762888408679,
        1.030999522495951
      ],
      [
        0.9312801191161986,
        -0.8392175232226385,
        -0.3092123758512146,
        0.33126343140356396,
        0.9755451271223592
      ],
      [
        -0.47917423784528995,
        -0.18565897666381712,
        -1.1063349740060282,
        -1.1962066240806708,
        0.812525822394198
      ],
      [
        1.356240028570823,
        -0.07201012158033385,
        1.0035328978920242,
        0.36163602504763415,
        -0.6451197546051243
      ],
      [
        0.36139560550841393,
        1.5380365664659692,
        -0.03582603910995154,
        1.5646436558140062,
        -2.6197451040897444
      ],
      [
        0.8219025043752238,
        0.08704706823817122,
        -0.29900735046586746,
        0.0917607765355023,
        -1.9875689146008928
      ],
      [
        -0.21967188783751193,
        0.3571125715117464,
        1.477894044741516,
        -0.5182702182736474,
        -0.8084936028931876
      ],
      [
        -0.5017570435845365,
        0.9154021177020741,
        0.32875110965968446,
        -0.5297602037670388,
        0.5132674331133561
      ],
      [
        0.09707754934804039,
        0.9686449905328892,
        -0.7020530938773524,
        -0.3276621465977682,
        -0.39210815313215763
      ],
      [
        -1.4635149481321186,
        0.29612027706457605,
        0.26105527217988933,
        0.00511345664246089,
        -0.23458713337514692
      ],
      [
        -1.4153707420504142,
        -0.42064532276535904,
        -0.3427145165267695,
        -0.8022772692216189,
        -0.16128571166600914
      ],
      [
        0.4040508568145384,
        1.8861859012105302,
        0.17457781283183896,
        0.25755039072276437,
        -0.07444591576616721
      ],
      [
        -1.9187712152990415,
        -0.026513875449216878,
        0.06023020994102644,
        2.463242112485286,
        -0.19236096478112252
      ],
      [
        0.30154734233361247,
        -0.03471176970524331,
        -1.168678037619532,
        1.1428228145150205,
        0.7519330326867741
      ],
      [
        0.7910319470430469,
        -0.9093874547947389,
        1.4027943109360992,
        -1.4018510627922809,
        0.5868570938002703
      ],
      [
        2.1904556258099785,
        -0.9905363251306883,
        -0.5662977296027719,
        0.09965136508764122,
        -0.5034756541161992
      ],
      [
        -1.5506634310661327,
        0.06856297480602733,
        -1.0623037137261049,
        0.4735924306351816,
        -0.9194242342338032
      ],
      [
        1.5499344050175394,
        -0.7832532923362371,
        -0.3220615162056756,
        0.8135172173696698,
        -1.2308643164339552
      ],
      [
        0.22745993460412942,
        1.307142754282428,
        -1.6074832345612275,
        0.1846338585323042,
        0.25988279424842353
      ],
      [
        0.7818228717773104,
        -1.236950710878082,
        -1.3204566130842763,
        0.5219415656168976,
        0.29698467323318606
      ],
      [
        0.25049285034587654,
        0.3464482094969757,
        -0.6800247215784908,
        0.23225369716100355,
        0.29307247329868125
      ],
      [
        -0.7143514180263678,
        1.8657745111447566,
        0.4738329209117875,
        -1.1913034972026486,
        0.6565536086338297
      ],
      [
        -0.9746816702273214,
        0.787084603742452,
        1.158595579007404,
        -0.8206823183517105,
        0.9633761292443218
      ],
      [
        0.4127809269364983,
        0.82206015999449,
        1.8967929826539474,
        -0.2453881160028705,
        -0.7537361643574896
      ],
      [
        -0.8895144296255233,
        -0.8158102849654383,
        -0.0771017094141042,
        0.3411519748166439,
        0.27669079933001905
      ],
      [
        0.8271832490360238,
        0.01300189187790702,
        1.4535340771573169,
        -0.2646568332379561,
        2.720169166589619
      ],
      [
        0.6256673477650062,
        -0.8571575564162826,
        -1.0708924980611123,
        0.4824724152431853,
        -0.2234627853258509
      ],
      [
        0.714000494092092,
        0.47323762457354485,
        -0.07282891265687277,
        -0.846793718068405,
        -1.5148472246858646
      ],
      [
        -0.4465149520670211,
        0.8563987943234723,
        0.21409374413020396,
        -1.245738778711988,
        0.173180925851182
      ],
      [
        0.3853173797288368,
        -0.883857436201133,
        0.1537251059455279,
        0.058208718445999896,
        -1.142970297830623
      ],
      [
        0.3577873603482833,
        0.5607845263682344,
        1.083051243175277,
        1.053802052034903,
        -1.377669367957091
      ],
      [
        -0.9378250399151228,
        0.5150352672086598,
        0.5137859509122088,
        0.5150476863060479,
        3.852731490654721
      ],
      [
        0.570890510693167,
        1.135565640180599,
        0.9540017634932023,
        0.651391251305798,
        -0.3152692446403456
      ],
      [
        0.7589692204932674,
        -0.7728252145375718,
        -0.23681860674000887,
        -0.48536354782910346,
        0.08187413938632256
      ],
      [
        2.3146585666735087,
        -1.867265192591748,
        0.6862601903745135,
        -1.6127158711896517,
        -0.47193186578943347
      ],
      [
        1.088950596967366,
        0.06428001909546277,
        -1.0777447779293061,
        -0.7153037092599682,
        0.6795977489346758
      ],
      [
        -0.7303666317171367,
        0.21645858958197486,
        0.045571839903813784,
        -0.6516003476058171,
        2.1439440893253257
      ],
      [
        0.6339190223180112,
        -2.025142586657607,
        0.18645431476942764,
        -0.661786464768388,
        0.852433334796224
      ],
      [
        -0.7925207384327007,
        -0.11473644146689901,
        0.5049872789804571,
        0.8657551941701215,
        -1.2002964070557762
      ],
      [
        -0.3345012358409484,
        -0.4749453111609562,
        -0.6533292325737119,
        1.7654542402810969,
        0.40498171096095553
      ],
      [
        -1.2608839543350452,
        0.9178619470547761,
        2.1221561970126332,
        1.0324652605511468,
        -1.5193699659540134
      ],
      [
        -0.48423407286625136,
        1.2669111491866227,
        -0.7076694656187807,
        0.44381942814622843,
        0.7746340534293368
      ],
      [
        -0.926930471578083,
        -0.05952535606180008,
        -3.2412673400690726,
        -1.0243876413342898,
        -0.2525681513931603
      ],
      [
        -1.2477831819648495,
        1.6324113039316352,
        -1.4301413779606327,
        -0.44004448669698376,
        0.13074057728609134
      ],
      [
        1.4412732890661155,
        -1.4358621511794394,
        1.1631637521549596,
        0.010233061019587049,
        -0.9815086510479509
      ],
      [
        0.46210347426327075,
        0.19905969557347003,
        -0.6002168771587947,
        0.06980208499001891,
        -0.3853135968617602
      ],
      [
        0.11351734525124804,
        0.6621306745210467,
        1.586016816145352,
        -1.237815498826849,
        2.1330333746562666
      ],
      [
        -1.9520877995225019,
        -0.15178509503558332,
        0.5883172064845765,
        0.28099186773503265,
        -0.6226995198205938
      ],
      [
        -0.20812225035727522,
        -0.4930009346588328,
        -0.5893647569442115,
        0.8496020970210246,
        0.35701548596504734
      ],
      [
        -0.6929095952606542,
        0.8995998754332507,
        0.30729952087660933,
        0.8128621188389601,
        0.6296288419236122
      ]
    ],
    "Y": [
      [
        1.2674136587228628,
        -1.0304097780291253
      ],
      [
        1.1377372697292523,
        1.434481661894472
      ],
      [
        -3.2266044609897557,
        1.486426959594696
      ],
      [
        -2.1619397781134833,
        0.5253424497156606
      ],
      [
        -3.4709126204137934,
        -0.011016740005070236
      ],
      [
        -1.8772373601241683,
        -0.2467746221451027
      ],
      [
        0.9000795104452894,
        2.1346942822806385
      ],
      [
        -0.4807602082405429,
        1.205948734756514
      ],
      [
        -1.5594994998824436,
        0.23359129968138453
      ],
      [
        -0.23269433401149825,
        0.4621458206757379
      ],
      [
        0.8020650127448122,
        -1.156046112765871
      ],
      [
        -0.4281631317572126,
        -1.5311281633513716
      ],
      [
        -0.7046930378342389,
        0.5539493411531426
      ],
      [
        -1.1725477515295033,
        -0.8015845334451899
      ],
      [
        1.4576462910515982,
        0.27984378119395675
      ],
      [
        -1.662429892560639,
        -0.07040750584418162
      ],
      [
        -0.6619192413338009,
        0.9337953440953417
      ],
      [
        0.6500042346877553,
        1.1111975931367992
      ],
      [
        -0.1199127685630629,
        0.5868516061771955
      ],
      [
        1.235425764105019,
        1.0542673749894962
      ],
      [
        -0.21603673377891744,
        1.1506553457117439
      ],
      [
        1.44502945292008,
        0.792112039719428
      ],
      [
        4.609635383709799,
        -0.4527998932726357
      ],
      [
        1.618179979553434,
        -1.1841885498696088
      ],
      [
        -2.802417661108886,
        -0.20568428185929927
      ],
      [
        -2.6404562310839936,
        -1.7019657886534225
      ],
      [
        1.4501345794392273,
        0.7317720048392435
      ],
      [
        -1.4284623207002587,
        -1.656608858529377
      ],
      [
        1.222345876106153,
        0.32130926596639964
      ],
      [
        -0.7057794053760995,
        -1.794000796536632
      ],
      [
        0.5249874047114482,
        -0.15549709484599472
      ],
      [
        0.958797721104681,
        2.2624908121377
      ],
      [
        1.065794852952494,
        1.3763160656999143
      ],
      [
        -0.40617782480272546,
        0.8089734898348554
      ],
      [
        0.9355997713595968,
        -0.3472937862365305
      ],
      [
        0.35968676289581514,
        -0.7382711278614222
      ],
      [
        -0.8550475190425213,
        -1.2921253311620666
      ],
      [
        -2.223333979693369,
        0.7026051021853053
      ],
      [
        -0.45704916881435437,
        1.68751322112418
      ],
      [
        -1.4390427317694694,
        -0.5983164059006063
      ],
      [
        0.6026743749125997,
        -0.02672052977330551
      ],
      [
        3.7854502321117174,
        -0.000540417392875886
      ],
      [
        1.1331161676387125,
        0.11672712406180925
      ],
      [
        -1.94841144399489,
        -0.5186949301041837
      ],
      [
        -5.658736800995625,
        -1.182594527784624
      ],
      [
        -1.5337270374109928,
        -0.4714178054983171
      ],
      [
        1.1072195659094048,
        0.5032806908723472
      ],
      [
        -2.4669728402837743,
        -1.2878968642980169
      ],
      [
        0.9034028462392383,
        0.14946937858715598
      ],
      [
        2.425284788777388,
        -1.2539973144658771
      ],
      [
        2.2458852016912965,
        1.0995102850820442
      ],
      [
        2.2004149987364015,
        0.6701061271586776
      ],
      [
        -0.622086629654938,
        0.6848441432501341
      ],
      [
        1.9486024270739843,
        1.773015463524915
      ],
      [
        -2.6981076172238394,
        -1.348158473654648
      ],
      [
        -0.13732554133685887,
        0.004365384769502795
      ],
      [
        -0.07188242549133296,
        0.9247674670450471
      ],
      [
        1.5754200122567232,
        1.1664448576264692
      ],
      [
        1.0007711903667555,
        -0.7596566519600318
      ],
      [
        2.729136915328555,
        0.18925223445084782
      ]
    ]
  },
  "params": {
    "n_components": 2
  },
  "expected": {
    "x_weights": [
      [
        0.6941698289878957,
        0.06450249416457442
      ],
      [
        -0.6843598123704298,
        -0.18519532233462435
      ],
      [
        -0.040582844376415954,
        -0.1439467934769878
      ],
      [
        -0.13643028352543224,
        0.9224750133107061
      ],
      [
        -0.17181299780492518,
        0.2997687296851175
      ]
    ],
    "y_weights": [
      [
        -0.7087501592233239,
        0.5613663071798853
      ],
      [
        -0.615488853538456,
        -0.7010156535278986
      ]
    ],
    "predictions": [
      [
        1.2094974461547947,
        -1.1753591463219473
      ],
      [
        0.9862919083223818,
        1.4671818918367696
      ],
      [
        -3.1810419511051222,
        1.3550764106259852
      ],
      [
        -2.1046483076590317,
        0.41490099792066537
      ],
      [
        -3.4894085079908796,
        0.0757343475795868
      ],
      [
        -1.8870495138057717,
        -0.3038749982474416
      ],
      [
        0.9807991634892315,
        2.068414120455067
      ],
      [
        -0.15981182100721902,
        1.3355700466889058
      ],
      [
        -1.5672866723511947,
        0.05181387377191235
      ],
      [
        -0.21756036589847227,
        0.1823938039748882
      ],
      [
        0.7534675464847354,
        -0.955378839653409
      ],
      [
        -0.530520526823939,
        -1.3212849548302417
      ],
      [
        -0.7307609927284249,
        0.6813178125493068
      ],
      [
        -1.174163624174257,
        -0.7629505456785587
      ],
      [
        1.5904798833409832,
        0.03850667914042272
      ],
      [
        -1.4301792329314786,
        -0.2683204171616014
      ],
      [
        -0.7126545653057839,
        0.9444379653690653
      ],
      [
        0.6726388081136984,
        1.1746303718660396
      ],
      [
        0.12458378326076114,
        0.7199723355475421
      ],
      [
        1.3688183097040254,
        1.0064930814959108
      ],
      [
        -0.13303389249941358,
        0.9570023537211936
      ],
      [
        1.3466063953684033,
        0.8516957868161265
      ],
      [
        4.649528096948564,
        -0.5344929711385006
      ],
      [
        1.6222988644212852,
        -1.0982866615175804
      ],
      [
        -2.9919576692611294,
        0.05483621733364638
      ],
      [
        -2.696814291486648,
        -1.8175089352720741
      ],
      [
        1.6718996106685744,
        0.5042902449283354
      ],
      [
        -1.4533029192226823,
        -1.7096590877221343
      ],
      [
        1.3060354059979402,
        0.36454276155734355
      ],
      [
        -0.6786961164721212,
        -1.6826719129055208
      ],
      [
        0.5456510924493565,
        -0.15725836454410463
      ],
      [
        0.7945488231665208,
        2.2974030272750103
      ],
      [
        0.7496038316566508,
        1.5884895294257009
      ],
      [
        -0.5843760111465034,
        0.787044424773662
      ],
      [
        0.7288390878920996,
        -0.2827708517768533
      ],
      [
        0.09636967809670263,
        -0.29009248636022045
      ],
      [
        -0.5756841921318062,
        -1.2613293015144353
      ],
      [
        -2.025673891047695,
        0.6040676216696942
      ],
      [
        -0.4676167498901133,
        1.5750218071889475
      ],
      [
        -1.47345215923418,
        -0.644536992567757
      ],
      [
        0.6871940319695398,
        -0.21343412138827034
      ],
      [
        3.6109460323679827,
        0.2153217443333269
      ],
      [
        0.9408458752059848,
        0.17469518898401065
      ],
      [
        -1.783636118417913,
        -0.5879926333160892
      ],
      [
        -5.726406825488971,
        -1.1908111023865966
      ],
      [
        -1.3643962378196668,
        -0.2559786096851773
      ],
      [
        0.98474081289295,
        0.7489439399319454
      ],
      [
        -2.520608297523841,
        -1.2071083427795921
      ],
      [
        1.081087762137594,
        -0.01590069533897616
      ],
      [
        2.411107775205135,
        -1.3376458856794393
      ],
      [
        2.1644614342986834,
        1.0036001540458275
      ],
      [
        2.371215228845004,
        0.6138016863078424
      ],
      [
        -0.3188413459729393,
        0.6995400670146681
      ],
      [
        1.968237395947571,
        1.7532202285729006
      ],
      [
        -2.8905539239837545,
        -1.3839787211818662
      ],
      [
        -0.2793987509547995,
        -0.1840335089474054
      ],
      [
        -0.30679083773955784,
        1.1630129164108551
      ],
      [
        1.5875060504983085,
        0.8834618434436985
      ],
      [
        1.1081145699770076,
        -0.8258677551396066
      ],
      [
        2.5704858565579465,
        0.406362428245962
      ]
    ]
  },
  "sklearn_version": "1.5.2",
  "sklearn_pin": "scikit-learn==1.5.2"
}