{
  "note": "sklearn 1.5.2 oracle. X=np.random.RandomState(0).randn(50,3); y_clean=X@[1,2,-1]+0.1*RandomState_continued.randn(50); y_outlier=y_clean with [:5]+=20. Source: sklearn/linear_model/_huber.py HuberRegressor.fit (L-BFGS-B over _huber_loss_and_gradient, line 325).",
  "X": [
    [
      1.764052345967664,
      0.4001572083672233,
      0.9787379841057392
    ],
    [
      2.240893199201458,
      1.8675579901499675,
      -0.977277879876411
    ],
    [
      0.9500884175255894,
      -0.1513572082976979,
      -0.10321885179355784
    ],
    [
      0.41059850193837233,
      0.144043571160878,
      1.454273506962975
    ],
    [
      0.7610377251469934,
      0.12167501649282841,
      0.44386323274542566
    ],
    [
      0.33367432737426683,
      1.4940790731576061,
      -0.20515826376580087
    ],
    [
      0.31306770165090136,
      -0.8540957393017248,
      -2.5529898158340787
    ],
    [
      0.6536185954403606,
      0.8644361988595057,
      -0.7421650204064419
    ],
    [
      2.2697546239876076,
      -1.4543656745987648,
      0.04575851730144607
    ],
    [
      -0.1871838500258336,
      1.5327792143584575,
      1.469358769900285
    ],
    [
      0.1549474256969163,
      0.37816251960217356,
      -0.8877857476301128
    ],
    [
      -1.980796468223927,
      -0.3479121493261526,
      0.15634896910398005
    ],
    [
      1.2302906807277207,
      1.2023798487844113,
      -0.3873268174079523
    ],
    [
      -0.30230275057533557,
      -1.0485529650670926,
      -1.4200179371789752
    ],
    [
      -1.7062701906250126,
      1.9507753952317897,
      -0.5096521817516535
    ],
    [
      -0.4380743016111864,
      -1.2527953600499262,
      0.7774903558319101
    ],
    [
      -1.6138978475579515,
      -0.2127402802139687,
      -0.8954665611936756
    ],
    [
      0.386902497859262,
      -0.510805137568873,
      -1.180632184122412
    ],
    [
      -0.028182228338654868,
      0.42833187053041766,
      0.06651722238316789
    ],
    [
      0.3024718977397814,
      -0.6343220936809636,
      -0.3627411659871381
    ],
    [
      -0.672460447775951,
      -0.3595531615405413,
      -0.813146282044454
    ],
    [
      -1.7262826023316769,
      0.17742614225375283,
      -0.4017809362082619
    ],
    [
      -1.6301983469660446,
      0.4627822555257742,
      -0.9072983643832422
    ],
    [
      0.05194539579613895,
      0.7290905621775369,
      0.12898291075741067
    ],
    [
      1.1394006845433007,
      -1.2348258203536526,
      0.402341641177549
    ],
    [
      -0.6848100909403132,
      -0.8707971491818818,
      -0.5788496647644155
    ],
    [
      -0.31155253212737266,
      0.05616534222974544,
      -1.1651498407833565
    ],
    [
      0.9008264869541871,
      0.46566243973045984,
      -1.5362436862772237
    ],
    [
      1.4882521937955997,
      1.8958891760305832,
      1.1787795711596507
    ],
    [
      -0.17992483581235091,
      -1.0707526215105425,
      1.0544517269311366
    ],
    [
      -0.40317694697317963,
      1.2224450703824274,
      0.2082749780768603
    ],
    [
      0.9766390364837128,
      0.3563663971744019,
      0.7065731681919482
    ],
    [
      0.010500020720820478,
      1.7858704939058352,
      0.12691209270361992
    ],
    [
      0.40198936344470165,
      1.8831506970562544,
      -1.3477590611424464
    ],
    [
      -1.2704849984857336,
      0.9693967081580112,
      -1.17312340511416
    ],
    [
      1.9436211856492926,
      -0.41361898075974735,
      -0.7474548114407578
    ],
    [
      1.9229420264803847,
      1.4805147914344243,
      1.8675589604265699
    ],
    [
      0.9060446582753853,
      -0.8612256850547025,
      1.9100649530990337
    ],
    [
      -0.2680033709513804,
      0.8024563957963952,
      0.947251967773748
    ],
    [
      -0.1550100930908342,
      0.6140793703460803,
      0.9222066715665268
    ],
    [
      0.37642553115562943,
      -1.0994007905841945,
      0.298238174206056
    ],
    [
      1.3263858966870303,
      -0.6945678597313655,
      -0.14963454032767076
    ],
    [
      -0.43515355172163744,
      1.8492637284793418,
      0.6722947570124355
    ],
    [
      0.40746183624111043,
      -0.7699160744453164,
      0.5392491912918173
    ],
    [
      -0.6743326606573761,
      0.03183055827435118,
      -0.635846078378881
    ],
    [
      0.6764332949464997,
      0.5765908166149409,
      -0.20829875557799488
    ],
    [
      0.3960067126616453,
      -1.0930615087305058,
      -1.4912575927056055
    ],
    [
      0.4393917012645369,
      0.16667349537252904,
      0.6350314368921064
    ],
    [
      2.383144774863942,
      0.9444794869904138,
      -0.9128222254441586
    ],
    [
      1.117016288095853,
      -1.3159074105115212,
      -0.461584604814709
    ]
  ],
  "y_outlier": [
    21.57880461806391,
    27.12462133154274,
    20.676117370518906,
    19.16176828343125,
    20.55067927294468,
    3.4606429088190693,
    1.2705296310921812,
    3.0166628627294716,
    -0.7994821077524782,
    1.3652338043163532,
    1.7492549674621456,
    -2.6400165305985137,
    4.117319276397071,
    -0.9706356193920267,
    2.5823892297072035,
    -3.636719079902794,
    -1.2439333815311695,
    0.3914472971661669,
    0.8807672695742427,
    -0.5717368624425228,
    -0.48633460643449766,
    -0.9377766163216071,
    0.2883475896590151,
    1.3160410500637871,
    -1.83601688152,
    -1.7793952727114986,
    0.8855870266980906,
    3.2994400749173103,
    4.055697724345381,
    -3.374133889862067,
    1.7980388245894667,
    0.8453035332987665,
    3.390967075545582,
    5.293709503477214,
    1.9039549680471675,
    1.703632270009881,
    2.905974314979818,
    -2.721255157006956,
    0.31570115322853076,
    0.3052434355754731,
    -2.2498999151911603,
    0.11358980448688843,
    2.587150866401861,
    -1.7884288537154593,
    0.07750220032338259,
    2.0207590506321513,
    -0.22167965697239395,
    0.22005767051386177,
    5.401249569216997,
    -0.9195611331688411
  ],
  "y_clean": [
    1.5788046180639081,
    7.12462133154274,
    0.6761173705189074,
    -0.8382317165687482,
    0.5506792729446814,
    3.4606429088190693,
    1.2705296310921812,
    3.0166628627294716,
    -0.7994821077524782,
    1.3652338043163532,
    1.7492549674621456,
    -2.6400165305985137,
    4.117319276397071,
    -0.9706356193920267,
    2.5823892297072035,
    -3.636719079902794,
    -1.2439333815311695,
    0.3914472971661669,
    0.8807672695742427,
    -0.5717368624425228,
    -0.48633460643449766,
    -0.9377766163216071,
    0.2883475896590151,
    1.3160410500637871,
    -1.83601688152,
    -1.7793952727114986,
    0.8855870266980906,
    3.2994400749173103,
    4.055697724345381,
    -3.374133889862067,
    1.7980388245894667,
    0.8453035332987665,
    3.390967075545582,
    5.293709503477214,
    1.9039549680471675,
    1.703632270009881,
    2.905974314979818,
    -2.721255157006956,
    0.31570115322853076,
    0.3052434355754731,
    -2.2498999151911603,
    0.11358980448688843,
    2.587150866401861,
    -1.7884288537154593,
    0.07750220032338259,
    2.0207590506321513,
    -0.22167965697239395,
    0.22005767051386177,
    5.401249569216997,
    -0.9195611331688411
  ],
  "sklearn_outlier": {
    "coef": [
      0.9901849150852472,
      1.9799648975529591,
      -0.9991423933578117
    ],
    "intercept": 0.009502361735417597,
    "scale": 0.0819610626867909,
    "n_iter": 15
  },
  "sklearn_clean": {
    "coef": [
      0.9752452784861918,
      1.9825172316075363,
      -1.0085222608523057
    ],
    "intercept": -0.006002274654895726,
    "scale": 0.06206704454748756
  },
  "sklearn_outlier_eps15": {
    "note": "Same X, y_outlier; HuberRegressor(epsilon=1.5). sklearn 1.5.2 live oracle.",
    "epsilon": 1.5,
    "coef": [
      0.9917793510943713,
      1.9848004437366662,
      -0.9958669082238799
    ],
    "intercept": 0.010648690163249652,
    "scale": 0.09974979969929194,
    "n_iter": 14,
    "outliers_count": 11
  },
  "sample_weight": {
    "weights": [
      0.9967141530112327,
      0.6382643011711846,
      1.1476885381006925,
      2.0230298564080256,
      0.734153374723336,
      0.7341369569491806,
      2.0792128155073915,
      1.267434729152909,
      0.9694743859349522,
      1.0425600435859645,
      0.9634176928124623,
      0.9657297535702569,
      0.7419622715660341,
      2.413280244657798,
      2.2249178325130328,
      1.0622875292409728,
      1.5128311203344238,
      0.8142473325952739,
      1.4080240755212108,
      1.9123037013352915,
      1.965648768921554,
      0.7257763004865356,
      0.5675282046879239,
      1.9247481862134568,
      1.0443827245251827,
      0.6109225897098661,
      1.6509935774223028,
      0.875698018345672,
      1.100638689918805,
      0.7916937497932768,
      1.101706612229397,
      2.352278184508938,
      0.5134972247379339,
      1.5577109289559004,
      1.3225449121031891,
      1.7208436499710222,
      0.7088635950047554,
      2.459670123879776,
      1.8281860488984305,
      0.6968612358691235,
      1.2384665799954104,
      0.6713682811899705,
      0.6156482823882405,
      0.8011036955892887,
      1.9785219903674274,
      1.2198442083947088,
      0.9606387709597874,
      1.5571222262189157,
      0.8436182895684614,
      2.263040155362734
    ],
    "coef": [
      0.9874180243005004,
      1.9601396268482156,
      -0.9959929067504325
    ],
    "intercept": 0.006625511233597289,
    "scale": 0.07424220501284944,
    "n_iter": 15
  },
  "warm_start": {
    "cold_coef": [
      0.9901849150852472,
      1.9799648975529591,
      -0.9991423933578117
    ],
    "cold_intercept": 0.009502361735417597,
    "cold_scale": 0.0819610626867909,
    "cold_n_iter": 15,
    "warm_n_iter": 1,
    "warm_coef": [
      0.9901851443699855,
      1.9799644774897398,
      -0.9991414981244235
    ],
    "warm_intercept": 0.009502588971859658,
    "warm_scale": 0.08196096877484878
  }
}